60 50
_ 0.007853162 -0.11118165 0.04952989 -0.18247122 -0.027500223 0.046010755 -0.0076821134 0.07197029 0.038468584 -0.048539303 -0.1105616 -0.0056554233 0.15159649 0.0077791004 0.01026817 -0.064818285 0.01046706 -0.20853591 -0.25063622 0.05530985 -0.20290044 -0.0057084886 0.1078732 -0.062210992 -0.31765306 -0.06288893 0.034293033 -0.2314899 0.004901427 0.061346672 -0.07224609 0.049984958 -0.08334817 0.24603799 0.119764335 0.1357974 -0.038839098 -0.079423174 -0.06175528 0.05499778 -0.27618724 0.11770894 -0.09719055 -0.09212402 -0.10791087 0.03960543 0.1057608 0.07911725 -0.10789315 -0.005901378
e -0.03759639 -0.2410868 -0.061596163 -0.12447466 -0.01786159 0.087063506 0.0024364644 0.13880597 -0.22945115 -0.04739084 -0.070766404 -0.014286122 0.15597233 0.0034563618 0.01661114 -0.026508583 0.061897725 -0.091508634 -0.18687548 0.02264211 -0.15784945 -0.02918106 -0.015274069 -0.064489394 -0.2426335 -0.09266159 0.0017054724 -0.12988307 -0.027325884 0.013926949 0.0063522942 -0.009880943 -0.15813072 0.2835708 0.26393503 0.14744407 -0.13518278 -0.011756371 -0.0060478193 -0.00057444104 -0.21937044 0.1957357 -0.07267108 -0.13896236 -0.06713521 0.039058823 0.24548934 0.04827102 -0.10871024 -0.047611423
t -0.15256034 -0.015685527 -0.09141848 -0.09731883 0.037763905 0.11714139 -0.0014871954 0.09364485 0.036128394 0.01693343 -0.03784855 -0.008143256 0.24078824 0.0031699322 -0.07232913 -0.08408587 0.1299829 -0.07132711 -0.22604321 0.032536495 -0.08268075 0.0047161225 0.07686493 -0.12882869 -0.22948067 -0.077073984 0.060411364 -0.054548267 -0.018857965 0.07114253 0.021682395 0.09020031 0.009029684 0.258452 0.26528215 0.18501075 -0.12792236 -0.04393214 -0.03019758 -0.0072878487 -0.3720061 0.1289456 -0.1380963 -0.06997534 -0.007582298 -0.045202646 0.02276767 0.114081316 -0.20651458 0.083799176
a 0.06892713 -0.075062685 -0.04183122 -0.09748296 -0.040577535 0.07061591 0.009462737 0.0561191 -0.14249362 -0.042300247 -0.041100085 -0.04938424 0.22967243 -0.041288305 0.0143687725 -0.078836165 0.032859758 -0.121864654 -0.11003873 0.08171481 -0.18800567 -0.07371017 -0.03482529 -0.10285509 -0.011704329 -0.06619676 0.13917112 -0.22592634 -0.06078854 0.073956646 -0.03805908 -0.006010035 -0.2241458 0.27880684 0.15074693 0.13443801 -0.07221819 -0.051742546 -0.114610076 -0.05343765 -0.25307557 0.111922055 -0.22075099 -0.06366868 -0.07526087 0.054410435 0.28496274 0.088167 -0.20106241 -0.047307543
o 0.05716211 -0.12717488 -0.027196994 -0.1551146 -0.030410556 0.17765154 0.079229966 0.16319351 -0.16133979 -0.08517917 -0.11210911 0.051943757 0.20177445 0.026156664 -0.017452862 -0.18902348 -0.039151352 -0.02526796 -0.15603326 0.053328976 -0.21417065 -0.12432889 0.05493312 -0.1265344 -0.051010985 0.014325794 -0.019703517 -0.13837203 -0.01658989 0.09074042 -0.08102502 0.08580243 -0.087010115 0.23382856 0.13413735 0.14716257 -0.08981857 -0.13760169 -0.08019457 0.078309886 -0.2849662 0.12838395 -0.21732146 -0.17115963 -0.041355122 -0.11228184 0.13679035 0.09022154 -0.2728898 0.10461617
n -0.0345101 -0.13384658 -0.0066845836 -0.08074565 -0.09715352 0.0028270115 0.035210542 -0.034579195 -0.07482236 0.029237472 -0.121255785 -0.011840051 0.14861847 -0.07619691 0.073445156 -0.0015994913 -0.042799048 -0.09571414 -0.074647166 0.03556193 -0.03519853 0.052091528 0.055739537 -0.071451634 -0.2530505 -0.06668466 0.17571756 -0.16813527 -0.059582394 0.04006014 -0.016453858 -0.0133174965 -0.06522316 0.22191633 0.33698785 0.16339482 -0.166733 0.020477023 -0.18071853 -0.036804702 -0.32497007 0.17641908 -0.13082793 0.042113543 -0.117208004 0.094743066 0.087653816 0.20036718 -0.19847701 0.12402815
i 0.00446096 -0.111307025 0.05591411 -0.10037806 0.07626317 0.052635368 0.11083308 0.116375186 -0.19213088 -0.022237306 -0.2160106 -0.07558637 0.13619277 -0.031130461 -0.05741028 -0.037744146 -0.008160032 -0.13713631 -0.1742369 0.07207749 -0.25792745 0.00058696215 0.071929775 0.052357987 -0.05400633 -0.023485553 0.10937336 -0.1651742 0.05092293 0.10877397 0.027868541 -0.0052889492 -0.22759497 0.32343942 0.22537097 0.23856299 -0.15659523 -0.05010127 0.049762167 0.058032844 -0.29731998 0.13335884 -0.012459338 -0.040032692 0.06027267 0.042303327 0.11463266 0.017496942 -0.21418405 -0.054159924
s -0.08473609 -0.041221652 -0.052645043 -0.076940425 -0.1043002 0.06312549 0.05956242 -0.0058281305 -0.18759778 -0.037749574 -0.04698818 -0.010760563 0.2680111 0.0856932 -0.073778585 -0.09206315 0.08607542 -0.10017317 -0.12314964 0.01641502 -0.12772669 0.041770462 0.08159114 -0.06500025 -0.2717166 -0.117113575 0.0985346 -0.0690495 0.06930685 0.06767038 -0.011849729 -0.018649075 -0.09278564 0.24674498 0.1232397 0.16938125 -0.07215798 -0.06829533 -0.06217036 0.09090847 -0.2641842 0.07509715 -0.15375063 -0.014954857 -0.036531717 -0.037433226 0.18779114 0.16438448 -0.21630408 0.16198741
h 0.026634011 -0.1605579 0.05312599 0.0144101 -0.050548755 -0.005595487 0.013487395 -0.072145104 -0.146426 -0.08074661 -0.16493678 0.08302174 0.13956164 -0.0017055531 0.023902794 -0.13625222 0.07861425 -0.10473851 -0.14833105 -0.015252242 -0.12801036 0.04994769 0.119964816 0.03988654 -0.16869727 -0.0137076825 0.06566493 -0.09774146 -0.1266749 -0.046697736 0.11306057 0.118858576 -0.12926607 0.3566941 0.10444043 0.22749467 -0.0044399877 -0.039528444 -0.020023098 0.15470946 -0.38573292 0.17612001 -0.1127609 -0.10670655 -0.07019432 0.113297984 0.2499532 0.10189381 -0.2228273 0.14840385
r -0.12898485 -0.09379356 0.08973527 0.052251656 -0.01469005 0.065550745 0.0535544 0.059905834 -0.078166716 0.033234898 -0.06389512 -0.02787046 0.21525489 -0.017038554 0.017443929 -0.18517837 -0.021654861 -0.080409646 -0.107911676 -0.020256082 -0.11108134 -0.06691905 0.09068478 -0.08588997 -0.21280968 -0.08215522 0.10716664 -0.14161155 0.014715484 0.16050483 -0.037955403 0.028803086 -0.06663788 0.24544688 0.23376514 0.21197715 -0.06305712 -0.13209882 -0.06272696 0.08749907 -0.4615205 0.16438416 -0.15974756 0.06492268 0.041629784 -0.072493106 0.020581583 -0.029348776 -0.04064831 -0.0003547162
d -0.09589678 -0.12497879 -0.054889034 -0.13989797 0.021218829 0.010638378 -0.026372995 -0.027195998 -0.12440289 -0.12515584 -0.09247586 -0.029299708 0.36227137 0.030390177 -0.074778944 -0.119215846 0.09711095 -0.18837969 -0.120517 0.04666483 -0.087267816 0.041137256 0.18552399 -0.11655699 -0.1980421 -0.03035189 0.05177636 -0.07411629 0.0899338 0.042836115 0.0035618586 0.043219417 -0.007249702 0.24830385 0.14010587 0.09920628 -0.098103404 -0.03015491 -0.068408966 -0.007636955 -0.3544234 0.1342892 -0.028012723 0.005293985 -0.13764176 -0.03951277 0.10041191 0.07908582 -0.11442671 -0.0517044
l 0.075392924 -0.10944343 0.008138138 -0.17345995 -0.1199243 0.020276517 0.096620835 -0.013317402 -0.17350037 -0.13331094 -0.07115645 0.098361224 0.200932 0.09412723 0.01402579 -0.1541071 0.013343541 -0.26290607 -0.15263993 0.12025361 -0.023562787 0.08802102 0.16196045 -0.08691245 -0.15180476 -0.076479845 0.19767176 -0.17100339 0.050474666 0.08785004 0.05593159 0.023578467 -0.04913334 0.17771588 0.23961687 0.1577793 -0.05668882 -0.03709717 -0.054001953 -0.004745902 -0.31131473 0.12010524 -0.20713729 0.06057805 -0.05155548 0.023424208 0.14513166 0.13508795 -0.026942609 -0.04593529
u -0.037286658 -0.03638473 0.11495437 -0.23524003 -0.07295995 0.046020478 0.18163891 0.24971129 -0.089771 -0.0043427176 0.050627843 -0.21520965 0.20780301 -0.018031228 -0.034614507 0.0037307942 0.011089789 -0.13432628 -0.027416293 0.060615674 -0.08614253 0.10286364 -0.18197373 0.083949946 -0.34629095 -0.03335747 0.06391138 -0.20994365 -0.070570655 0.00042710928 0.09805211 -0.0070523494 -0.19854349 0.106837474 0.057192765 0.30631226 -0.117235065 0.057492264 0.22771923 0.092665784 -0.43295893 0.17873007 -0.22545649 -0.043142885 -0.022429736 -0.04270093 0.11312777 0.04486817 -0.21534951 -0.08193164
m 0.040621012 -0.042341672 -0.046758693 -0.14887314 0.050611343 -0.07921005 0.061030168 0.1563993 -0.048757862 -0.07008822 -0.1472106 -0.0060629467 0.1373141 0.054226812 -0.057315025 -0.26549298 -0.0074733594 -0.15483986 -0.046661653 0.0038464202 -0.018779306 0.028150609 0.14418183 -0.077587366 -0.18035054 0.028409844 0.012921 -0.13826263 0.08046454 0.07080899 -0.06476261 0.058310594 -0.016288193 0.20196065 0.15025263 0.06674571 -0.069111586 -0.039374735 -0.04145234 0.03113986 -0.47763327 0.20533833 -0.1864829 -0.0018137944 -0.053927764 -0.051082406 0.1966582 0.13006753 -0.02263125 -0.02849666
c -0.18454276 -0.035743624 -0.028267993 -0.1541204 -0.060267672 -0.010214188 0.07267156 0.15537521 -0.057139847 -0.057826176 -0.087369055 -0.00703069 0.26176822 -0.018025845 -0.09874767 -0.20037177 0.052682634 -0.13624659 -0.20460752 -0.033225514 -0.21928445 -0.06040493 0.04193512 -0.011475593 -0.26101252 -0.0879733 0.028467914 -0.03273857 0.111032374 0.02759103 -0.059868734 -0.035403058 -0.04298578 0.16176987 0.26467547 0.14125974 -0.07340398 -0.06657823 -0.09700042 -0.013614019 -0.30086246 0.06580448 -0.08243634 -0.093310826 -0.09353875 0.05666548 0.039694894 0.2020895 -0.10118622 0.09541233
f -0.20468 -0.17590389 0.0019857557 -0.22181298 0.059869993 0.07438705 0.012139166 0.12238016 -0.028005784 0.011410832 0.029782124 0.08033103 0.08768687 0.09777091 -0.07424748 -0.13715161 0.03407184 -0.10620974 -0.12477754 -0.08790785 0.002945492 -0.05073322 0.20913453 -0.0741708 -0.12839371 0.01350197 -0.0026449787 -0.055627678 -0.011468908 -0.06388459 0.0018732175 -0.050558988 -0.1339546 0.27719402 0.19199792 0.03559944 -0.16172846 -0.008950699 0.030336794 0.059347782 -0.47103408 0.20026588 -0.15251036 0.027938763 -0.15411279 0.02949727 0.11090773 0.23120438 -0.20276928 0.029627623
w -0.041094325 -0.09498311 0.014399086 -0.06930995 -0.03589204 -0.15869085 0.033844274 0.07256686 0.0870873 0.006537283 -0.02684275 -0.09221068 0.1873793 -0.1634395 -0.12459634 -0.07426896 0.21925136 -0.07890355 -0.28196365 0.07653885 -0.08153794 -0.048952263 0.09399211 -0.09104682 -0.059566062 -0.027174281 0.0026143356 -0.015155038 -0.06118431 -0.009120908 0.0024460016 0.067350194 -0.054986976 0.4040756 0.21510847 0.21586996 -0.14163499 -0.04777935 -0.097658224 -0.12939824 -0.37204942 0.18697667 -0.16274047 -0.14485344 -0.018620111 0.16397816 0.25147474 0.29101038 -0.055124775 -0.16165543
y -0.14946002 -0.30926064 0.054471422 -0.29497257 -0.12071663 0.16197625 -0.017473929 0.10955179 -0.16423555 -0.12997389 0.04561259 -0.037467528 0.24032745 0.07985561 -0.10516789 -0.0226826 -0.10458882 -0.20521152 -0.118711345 -0.032113973 -0.19239825 0.041579135 0.0995796 -0.037259787 -0.2924458 -0.11145939 -0.012671384 -0.10693487 0.059439633 -0.12412533 0.14604323 0.1095132 -0.040535327 0.19207351 0.18379451 0.20453498 -0.1481113 -0.043669645 -0.11146436 0.04182295 -0.20191754 0.14745474 -0.14580579 0.036876727 0.0782912 -0.077999905 0.19765791 -0.079818144 -0.24434009 -0.10947946
g -0.0034578876 -0.068345025 -0.1512526 -0.25273195 -0.033737283 -0.120030865 0.03007737 0.014461622 -0.0273295 -0.07768056 -0.09418301 -0.057075642 0.24986763 0.05640456 -0.071123615 0.01857779 0.1226399 -0.11526826 -0.21036226 0.08649251 -0.28641534 -0.060742687 -0.024368057 -0.04093326 -0.14087279 -0.15390483 -0.029461013 -0.01299513 0.26916122 -0.02281968 -0.012413327 -0.05333848 0.01665536 0.25478485 0.07865669 0.002217558 -0.0068707787 -0.10798762 -0.11406975 -0.017389178 -0.5448811 0.091749266 -0.05206916 -0.117464274 -0.10879394 0.015923765 0.1505619 0.10641017 -0.15065071 0.11731902
p -0.19183291 -0.07965733 -0.014574954 0.0065456275 0.0076931934 -0.13559021 0.004536041 0.16307221 -0.12850255 0.061251335 -0.03883066 0.0030322769 0.2806942 0.008474344 -0.1530677 -0.22515503 0.05735299 -0.17962642 -0.041433595 -0.12971538 -0.051065724 -0.13750267 0.1902653 -0.087136194 -0.2491043 -0.016499344 0.035274114 -0.15183805 -0.0017582921 0.12566362 -0.081343874 -0.08793281 -0.13627392 0.20242576 0.14568241 0.01907309 -0.22695255 -0.017720293 -0.029824123 0.047197238 -0.20766626 0.17458251 -0.06891681 0.056931775 -0.096689366 0.020225663 0.21232066 0.27410266 -0.16721278 0.10725815
<s> -0.3894395 -0.138608 0.13726555 -0.012170027 -0.028549634 0.052308895 0.11855476 0.16750674 0.06428505 0.045998957 -0.20897612 0.042480648 0.09240299 0.20020443 -0.2753885 -0.2513364 0.48137173 -0.02048617 -0.8632687 -0.050564434 -0.024459636 0.5023492 0.098894894 -0.03973036 -0.053546008 -0.1571764 0.267561 -0.43464738 -0.25698867 -0.0034195946 0.12302535 0.23035157 -0.23772953 0.29193914 -0.15053481 0.1890014 0.08235209 -0.018720878 0.017961146 -0.0045076986 -0.30437177 0.10548479 0.057203915 -0.3677309 0.6611238 0.12657568 0.5164319 0.3147376 0.051422827 0.21015553
</s> -0.115129836 0.31312013 -0.11502188 -0.46977141 -0.023278434 -0.09185121 0.24685258 0.73723185 -0.63087726 -0.4013967 0.03407539 -0.2587465 0.2667927 -0.20661145 0.44318646 0.06393028 -0.17838147 0.07259147 -0.19137603 -0.2628054 -0.16564357 -0.1970748 0.43092355 -0.16793464 -0.14665751 0.022737712 -0.25860527 0.20452018 -0.34191015 0.21840514 0.17404056 -0.80743086 0.4286817 0.11433286 0.53890544 -0.078030795 0.34841514 -0.027148724 -0.07961423 0.1387756 -0.54492563 0.19151159 -0.39895886 0.29784074 0.18957295 0.1431893 0.1758954 -0.035945658 -0.2814243 0.16670193
, -0.12343313 -0.20630452 0.11603013 -0.25750175 0.099676065 0.076088786 -0.079610966 0.0836038 0.12254984 0.023754345 -0.2387674 -0.1662281 0.47132954 -0.044660017 -0.020895716 -0.11537541 -0.016099505 -0.247184 -0.2041589 0.068876125 -0.07646533 0.13527454 0.09694171 -0.114506245 -0.13178091 -0.03747244 0.09175867 -0.25412807 -0.033371773 -0.049029306 0.015809512 -0.085700795 -0.297075 0.18092327 0.08714659 0.19895422 0.13992907 0.026286684 -0.05368168 0.06361188 -0.22701943 -0.022506882 0.01662292 -0.038508017 0.004374022 0.03071735 0.38882354 0.20139205 0.06165923 0.20587686
b 0.040209774 -0.15668647 -0.0028927291 -0.13236101 0.08904148 0.08557882 0.106651336 -0.006015824 -0.14434654 0.035601344 0.02864737 -0.041892864 0.20542341 -0.03672578 -0.066680975 -0.17966706 0.022746718 -0.18131544 -0.15009865 -0.08732955 -0.041525636 -0.014036058 0.087740935 -0.24192442 -0.22339459 0.10345215 0.13470146 -0.11164831 0.096565604 -0.14200512 -0.08456721 0.052042823 -0.01031468 0.21460032 0.1425138 0.14139567 0.035528984 -0.12539014 -0.109523185 0.07690169 -0.3964582 0.13943344 -0.13839751 -0.026162015 -0.006164657 0.058112014 0.08481702 0.26723048 -0.18179077 -0.20814094
v -0.10657582 0.048782095 -0.12315122 -0.0018374535 0.11565405 -0.042872176 -0.042857192 -0.005116207 -0.087679416 -0.07381115 -0.04508077 -0.080186605 0.18352078 -0.055723175 -0.0115362415 -0.22828834 0.11033392 -0.16055422 -0.13659102 -0.0089128185 -0.12112965 0.039095618 0.08169112 -0.19381258 -0.19110349 -0.11068064 0.06370663 -0.12714872 -0.1388751 -0.10767333 0.13300046 0.13070339 -0.06141464 0.13339162 0.05863766 0.06253459 -0.020819262 0.123943105 -0.04484714 -0.08054302 -0.5387197 0.1983899 -0.1433114 0.064250894 -0.15799144 -0.04134335 0.24945349 0.15895545 -0.118266836 -0.08462884
. -0.032778908 -0.11208094 0.38866597 -0.32622132 -0.1050155 -0.3641923 0.16968776 0.62049526 -0.5640457 -0.38790685 0.11243545 -0.08481411 0.1768957 -0.08890552 0.36139673 0.068124495 0.35869431 0.31147546 -0.16506642 -0.3968652 0.09762077 -0.2674874 0.29566556 -0.13479058 -0.1269468 -0.23469722 0.048730835 -0.14857252 0.10969444 0.008635303 -0.06772554 -0.028504115 -0.40231287 -0.12423152 0.48454326 0.07061227 0.15789191 -0.09371354 -0.20208797 -0.122350164 -0.59668756 -0.11468245 -0.116171725 0.0934551 -0.09293192 -0.22358468 -0.06653484 -0.019449383 -0.3295231 0.33587545
k -0.05279779 0.08206387 0.12724477 -0.099059545 -0.18203008 -0.036333453 -0.03232517 -0.070307784 -0.120444566 -0.2260636 0.041344713 0.03923194 0.5262693 0.069142014 0.004371979 0.018942675 0.09372436 0.02071427 -0.1783926 0.1661085 -0.09814046 -0.027976569 0.16016804 0.122598566 -0.106954575 -0.074578345 0.037902404 -0.037795123 -0.11209511 0.121282235 0.021413 0.07699707 -0.13348053 0.36127526 0.061325826 0.23654127 0.009004757 -0.079155445 0.04363235 0.12106022 -0.40276688 0.16680379 -0.17265826 -0.0012783717 -0.14367087 0.06486997 0.083562344 0.13610853 -0.16612436 -0.0797628
; -0.074998215 -0.2435673 0.1580409 -0.5025519 0.26302037 0.33908734 -0.15067326 0.15357591 0.39972308 0.14392239 -0.28672552 -0.14665535 0.46400177 -0.020955194 0.07970074 -0.2647467 -0.060493063 -0.44388074 -0.24313551 0.1227245 0.042250637 0.14701143 -0.016944343 -0.23779655 -0.06348597 -0.07217301 0.043352064 -0.19161087 -0.11806147 -0.25506997 0.048218943 -0.11398236 -0.5177529 -0.011624908 0.19117041 0.18256204 0.35078624 0.045701116 -0.17632839 5.6260793e-05 -0.37148127 -0.19536543 -0.043895956 -0.23439689 -0.23612632 0.16098192 0.22478667 0.23508759 0.09370825 0.35502136
" -0.27100667 -0.24582626 -0.094470665 -0.20008601 -0.32518622 -0.518301 0.22968413 0.16500089 -0.29871154 -0.3107911 -0.07071937 -0.30589122 0.34743068 -0.15180135 -0.37586945 0.174992 0.1594188 -0.17752466 -0.048731588 -0.4388531 0.15822284 0.46100646 0.28578994 -0.016062982 -0.16929607 0.4096043 0.24665035 -0.52203065 0.030717792 0.3639121 -0.1395454 0.2842135 0.60542065 0.3499502 -0.16092867 0.06725724 -0.22865152 -0.05068469 -0.058286414 -0.021759609 -0.19245191 0.39903104 -0.3772875 0.20997632 0.35359377 -0.26854786 0.38924208 -0.3972356 -0.26765585 -0.09122633
x -0.25171 0.16508572 -0.071567595 0.123006135 0.22807375 0.051735073 -0.09616096 0.20638193 -0.334486 -0.121589415 -0.19414724 -0.23078875 -0.07552782 -0.038383067 -0.46753362 -0.35768515 -0.05740479 -0.24354863 0.1392045 -0.101816475 -0.19920342 0.13599047 0.12960602 0.2030301 -0.34543794 -0.15103523 0.18705203 -0.047957834 -0.016490735 0.12258791 -0.21485949 0.16936615 -0.2932108 0.14646764 0.3142845 0.21084273 0.05885251 0.05805692 -0.09585026 0.07090539 -0.24394317 0.0307721 -0.15523149 0.20321162 -0.055557348 -0.020842692 0.3098831 0.1609535 -0.16948946 0.16783832
' 0.02171469 0.010392472 0.15640362 -0.21841942 -0.30489606 -0.26097387 -0.1308473 0.41147277 -0.12953396 0.1386255 -0.16770928 -0.25838867 0.68199766 0.2175914 -0.13974375 0.14820498 0.085191794 0.09345255 -0.26479486 -0.09457212 0.13976109 0.083334334 -0.2033247 0.047535416 -0.11242636 -0.035461087 0.17056039 -0.2650704 -0.13653955 -0.055284265 -0.48987597 0.13938297 0.11590985 0.67382705 0.030643255 0.028321201 0.2610547 -0.28749594 -0.42714414 0.35139206 -0.04894694 0.20101711 -0.16807245 0.37975907 -0.020807795 0.18420231 0.114162646 -0.02630973 -0.23123959 -0.19790812
q 0.19214557 -0.06583212 -0.23091978 -0.065139264 -0.011410939 -0.24949037 0.19708583 -0.037302442 -0.3524536 0.18558839 -0.028342156 0.029111372 0.32590255 0.0277949 -0.45706946 -0.27693713 -0.10803738 -0.66413707 -0.46522865 -0.115225345 -0.13575414 0.0030720914 -0.038778443 -0.1072009 -0.041703608 0.17246902 0.19375525 -0.04040851 0.16213998 -0.34000453 -0.17211807 0.108769394 0.09899998 -0.0998917 0.2505148 -0.22799854 0.017535325 -0.12843421 0.00050911045 0.1381734 -0.43382883 0.15638733 -0.08984044 -0.051229153 0.02370928 0.08153296 -0.1328759 0.302455 -0.3064726 0.35411674
j 0.19526255 0.009005713 -0.14936943 -0.14738068 -0.01293679 0.0041347127 0.18972892 0.017404642 -0.19518976 0.11430807 0.1827437 0.009088949 0.30127347 0.23990354 -0.4199426 -0.12127814 -0.09338737 -0.27069038 -0.29073235 -0.022823479 0.060635343 0.10422367 0.080128536 -0.12494902 -0.12098743 0.23952535 0.06948229 -0.16959071 -0.13430192 0.017028973 -0.19046058 0.07250351 -0.088624336 0.17493448 0.1828512 0.062135916 0.12827525 0.036428526 0.10792006 0.23816174 -0.441517 0.24183808 -0.36339486 0.004187239 -0.052228604 -0.0116896145 0.0006163285 -0.13707042 -0.1403825 0.21137649
z -0.06417553 -0.12269865 -0.01601229 -0.33135286 0.0383539 -0.03140339 -0.21072179 -0.11790938 -0.21852422 -0.34556675 0.13385847 -0.013552905 0.42979825 -0.15885632 0.02518983 0.39749306 -0.11923308 -0.21056516 0.19086677 0.29543528 0.13360405 0.15952598 -0.014962856 0.097975306 -0.26046598 -0.030709306 0.29709223 -0.65723044 0.10214636 0.22671247 -0.11476039 -0.113245614 0.20492904 -0.0605028 0.16971561 -0.1373978 0.14938064 -0.32870543 -0.3636371 -0.09943452 -0.6897616 0.28448045 0.3408886 -0.18099597 0.19842488 0.3430875 0.16163656 0.09877657 -0.23517083 -0.27621737
? 0.12306455 -0.21569705 0.3372789 -0.5749265 -0.1397306 -0.63101137 0.16448717 0.4200321 -0.44408858 -0.5754624 -0.017505554 -0.3977966 0.3894344 -0.24456654 0.013777386 0.31144884 0.7078433 0.24003695 -0.34137696 -0.5194146 0.2179624 0.3002293 0.52751154 -0.039021958 -0.12156007 0.11046257 0.1661831 -0.2177488 0.1700429 0.24210194 -0.25182685 0.3370446 -0.21290755 -0.02930318 0.35553575 0.27178302 0.40303648 0.0068639675 -0.17957912 -0.21418978 -0.33543965 -0.23794076 -0.23844911 -0.07307775 0.022597061 -0.31337523 0.030834313 -0.24339613 -0.38523364 0.55965906
: 0.07915076 -0.34019324 0.14363396 -0.5323764 0.28876054 0.1226087 -0.1782657 0.1923072 0.39408508 -0.054865506 -0.3165495 -0.34846783 0.415001 -0.1759575 -0.18308412 -0.0097839255 0.00775771 -0.48731124 -0.050360586 -0.04595112 0.17041774 0.33176854 0.26771486 -0.20329453 -0.22557575 0.38352698 0.22555675 -0.46351177 -0.082912125 0.13117194 -0.24846646 -0.0117424205 -0.031678654 0.18457317 0.048434436 0.1652285 0.37139052 0.024157543 0.018985488 0.21837415 -0.046317615 -0.10000263 -0.096385725 0.07140135 -0.11605724 -0.075889006 0.33944437 0.04396999 -0.19898923 0.407571
é 0.02654797 -0.15243481 0.08611959 -0.16552608 -0.27912092 -0.17488316 -0.1371559 0.31322414 -0.23703311 -0.050823566 -0.12977953 -0.41512954 0.6131125 0.15152994 -0.2042046 0.23271964 -0.015617071 -0.003815869 0.0013352158 -0.04121323 -0.0423372 0.08287487 -0.23307258 0.058032066 -0.3662465 -0.038725857 0.17559813 -0.2045807 0.022598244 0.02310947 -0.37139964 0.0866854 0.039753225 0.42493963 0.08460371 0.20813711 0.15184772 -0.1007279 -0.20177694 0.2833007 -0.08934923 0.101661116 -0.14950837 0.34784085 -0.22531913 -0.07376702 0.0009538664 -0.1256122 -0.24434327 -0.15667799
æ 0.10522669 -0.15195565 0.05487382 -0.35789588 -0.118762836 -0.1697322 0.04353176 0.20600988 -0.19459806 -0.12637268 -0.008334075 -0.19586235 0.41355288 -0.031006256 -0.15198766 0.099274926 0.044024806 -0.10544616 -0.16728689 -0.12516958 -0.13195412 0.005210035 0.21513762 -0.03718259 -0.27533236 0.12375192 0.010326938 -0.06826037 0.07156701 -0.023339666 -0.24112786 -0.08906081 0.0052443687 0.18987335 0.2947139 0.018267442 0.06188279 -0.07696532 -0.08783071 0.07201879 -0.22790685 0.07594308 -0.21773843 0.13899842 -0.17562948 -0.048664153 0.023462003 -0.12717731 -0.24997467 0.18332356
ê -0.061564058 -0.090582006 0.03310021 -0.24041942 -0.15876867 -0.1224063 0.018132696 0.16130853 -0.23018026 -0.18166943 -0.074439876 -0.19949397 0.374186 -0.027403174 -0.0132873105 0.14950576 0.07538396 -0.01962415 -0.16168529 -0.12082712 -0.08168059 0.06809283 0.21588393 -0.030423455 -0.24228531 0.07742712 0.044270687 -0.119850725 -0.031878706 0.09472507 -0.10586368 -0.056733347 0.053950433 0.2268743 0.20163587 0.11050308 0.021903284 -0.05097663 -0.1207528 0.043532383 -0.26053077 0.12590253 -0.22245438 0.13264056 -0.06400696 -0.021211913 0.113941 -0.1318009 -0.17670846 0.03445587
ö -0.020926837 -0.10778658 0.08366151 -0.2958307 -0.13629518 -0.12606514 0.09323941 0.27305722 -0.29915658 -0.23895197 -0.007300251 -0.17101355 0.35362518 -0.09547672 0.123930275 0.14039445 0.11890122 0.060103215 -0.2908667 -0.21157448 -0.15708774 -0.054248683 0.3872596 -0.10607585 -0.18546122 0.03227315 -0.02137303 0.019399159 -0.027446963 0.03890403 -0.11907546 -0.16117416 -0.019001126 0.19593987 0.28658432 0.05144509 0.14179176 -0.06853869 -0.08475654 0.011240138 -0.26736113 0.0677673 -0.24460804 0.0899391 -0.05195328 -0.034884892 0.06689496 -0.05673867 -0.19473848 0.16217117
è -0.012629199 -0.051425345 0.024879161 -0.2700914 -0.14249481 -0.1910912 0.09151591 0.29676697 -0.397082 -0.2762294 -0.015922174 -0.24671158 0.4445674 -0.13217904 0.09059866 0.11998701 0.12914127 0.09109103 -0.31467712 -0.23538744 -0.12599063 0.014105003 0.33893862 -0.10435104 -0.1585849 0.06906422 -0.05840722 0.04892934 -0.10784673 0.00864974 -0.110742435 -0.14042905 0.09072334 0.14878355 0.27960822 0.051086664 0.14405026 -0.05960717 -0.10919168 0.056963593 -0.2717679 0.09233441 -0.28217912 0.11107627 0.023478776 -0.046523925 0.0922104 -0.13579513 -0.19566588 0.1216927
ë 0.0136330975 -0.010360258 0.0318808 -0.25464848 -0.099142924 -0.09557907 0.066749245 0.21248877 -0.32748705 -0.2528555 0.031994 -0.14245541 0.32774693 -0.10997261 0.08686984 0.08437186 0.039452586 -0.02417146 -0.11515415 -0.14030717 -0.14567341 -0.12801278 0.2812411 -0.12925142 -0.249282 0.007887988 -0.06428235 0.015402725 -0.0014173292 0.02326413 -0.13148083 -0.15628311 0.010092739 0.12634677 0.3227788 0.09150475 0.056256533 -0.08010859 -0.13041896 0.059696633 -0.31375113 0.08334622 -0.20753336 0.12634102 -0.10934158 -0.009137377 0.076705806 -0.042902175 -0.17650917 0.028227761
à 0.006560433 -0.11360401 0.008939065 -0.22812451 -0.10286618 -0.08791984 -0.0016402055 0.21217489 -0.2695229 -0.1285152 -0.068747304 -0.20946993 0.38879853 -0.04417988 -0.03302727 0.06352931 0.0659408 -0.0030406215 -0.18113685 -0.1475884 -0.09550045 0.04511327 0.2015258 -0.057582885 -0.1833811 0.09903239 0.04130977 -0.07936874 -0.028735617 0.09787234 -0.12467205 -0.08093821 0.07402818 0.20998634 0.20043033 0.05533974 0.053071246 -0.07718609 -0.07806935 0.053316124 -0.25024167 0.1454246 -0.26399246 0.1240641 -0.0073371558 -0.0762434 0.14110047 -0.13785796 -0.21354294 0.06411925
ô -0.034491763 0.02055438 0.0022187112 -0.2492409 -0.103566304 -0.15777451 0.10305623 0.2959801 -0.41142553 -0.25796807 -0.0048965276 -0.11779603 0.23673786 -0.10607054 0.128255 0.05729951 0.060331278 -0.006392844 -0.17338412 -0.17487375 -0.15830207 -0.1112753 0.33216885 -0.10505719 -0.18180963 -0.025728786 -0.04418155 0.057500392 0.03371678 0.07612003 -0.06421025 -0.17139235 0.019681023 0.11432313 0.35005403 0.06976106 0.048944842 -0.05078032 -0.11697882 0.0018042905 -0.3015634 0.068917215 -0.22292814 0.10141954 -0.05635566 -0.039598983 0.033977933 -0.024289256 -0.24012549 0.1063275
ñ -0.01918354 -0.081266835 0.037497718 -0.3540028 -0.08193764 -0.19854623 0.062786564 0.26849228 -0.40216163 -0.33093935 -0.010263383 -0.21778995 0.35095835 -0.1495116 0.083399765 0.20638366 0.048243605 -0.020492662 -0.15421003 -0.21373461 -0.09875241 -0.012803106 0.39259124 -0.04207145 -0.19466475 0.10827414 0.0007040844 -0.07157603 0.05388061 0.113610655 -0.12780376 -0.20070593 0.075752504 0.095625974 0.36381936 0.029359639 0.16499668 -0.12046044 -0.16643125 0.030118197 -0.251649 0.06831629 -0.19562797 0.12522718 0.054177694 0.00036439457 0.09081736 -0.13019799 -0.2503955 0.07261378
ä 0.021691883 -0.04022789 0.052730802 -0.20896502 -0.096126564 -0.07550975 0.11101723 0.27852216 -0.29699865 -0.17432347 -0.008398326 -0.15283647 0.30982956 -0.03629798 0.10516772 0.057462126 0.10723672 0.03267466 -0.26717436 -0.1271826 -0.15557262 -0.047859963 0.26748478 -0.15487038 -0.23067215 -0.016286565 -0.02025868 -0.018184828 0.004175471 0.06296253 -0.09759877 -0.109837495 -0.036765162 0.1359158 0.27586746 0.117836066 0.10627752 -0.063199446 -0.053704765 0.028311668 -0.26870126 0.07133122 -0.21448517 0.09632046 0.02801277 -0.024531178 0.05454041 -0.055578448 -0.19771484 0.08462445
ï -0.024329681 -0.016530395 0.064476565 -0.26976126 -0.099957556 -0.11389196 0.062215593 0.2936201 -0.32270893 -0.24103767 -0.00021635026 -0.14469288 0.25478116 -0.08702116 0.18390605 0.058394004 0.09563511 -0.027018208 -0.12028722 -0.12759463 -0.1356499 -0.16467158 0.3015262 -0.15606767 -0.2518551 -0.055554662 -0.0687617 0.021439893 0.023844082 0.07509518 -0.06298591 -0.14501978 -0.05370104 0.07793351 0.32161862 0.065016754 0.077497914 -0.032525647 -0.11595245 0.019002445 -0.301821 0.062178947 -0.19465561 0.069454834 -0.09821772 -0.07832994 0.002601589 -0.026588846 -0.19255595 0.09683914
â 0.01891463 -0.042671364 0.06616804 -0.23153526 -0.07819375 -0.07918712 0.04909148 0.28790787 -0.30028895 -0.21521518 -0.0054667573 -0.17790025 0.3098867 -0.042482406 0.09503386 0.09829348 0.06800925 -0.011752233 -0.13093637 -0.1462748 -0.10332524 -0.06730178 0.22240068 -0.12139716 -0.1949923 -0.027511455 0.031699967 -0.07088924 0.010458866 0.101634435 -0.14725168 -0.12757295 -0.0012877132 0.15237133 0.26889646 0.08436393 0.13123682 -0.059730534 -0.13514383 0.052444827 -0.25440055 0.04357695 -0.1813594 0.093605384 -0.016114853 -0.007752213 0.07494571 -0.075744145 -0.17451264 0.0866809
ü -0.02103037 -0.040177584 0.057689264 -0.27184126 -0.13900682 -0.17864856 0.11871764 0.28029853 -0.42961013 -0.3082438 0.057605766 -0.13280217 0.2598922 -0.1224406 0.1418881 0.107729785 0.061699558 0.03774238 -0.16874899 -0.18042439 -0.18765467 -0.14277185 0.332919 -0.087316684 -0.2146973 -0.0147711625 -0.057859067 0.020325253 0.03997728 0.048628516 -0.051622394 -0.16688281 0.022434928 0.1094741 0.3519317 0.020801745 0.042659216 -0.08771244 -0.073154666 0.022502549 -0.28682214 0.07499812 -0.20035401 0.09916216 -0.030816762 -0.04757443 0.053315785 -0.09424834 -0.19968013 0.05804877
ο 0.015147276 -0.040425166 0.052190118 -0.26433218 -0.06263955 -0.083778635 0.08004407 0.28706896 -0.28818175 -0.18581411 0.0028763867 -0.1451418 0.27681184 -0.061764207 0.103105 0.03432642 0.027061325 -0.04241221 -0.13769646 -0.112144224 -0.13154486 -0.09915254 0.25062516 -0.1073968 -0.20620483 -0.009148002 0.017583925 -0.0661675 0.0015018525 0.10218176 -0.05983543 -0.10409152 -0.004588234 0.17723972 0.30400214 0.09331688 0.03331779 -0.040594704 -0.07987673 0.0372971 -0.29842705 0.060912054 -0.21386762 0.109137155 -0.08916433 -0.07390998 0.08793233 -0.06379703 -0.19980058 0.06654978
ἶ 0.024714662 -0.054309543 0.027506156 -0.24392483 -0.034268104 -0.044325683 0.018296737 0.22899789 -0.21237922 -0.13210914 -0.05446026 -0.08177118 0.21819827 -0.04740767 0.04233745 -0.0002778515 -0.011936427 -0.09098552 -0.08879583 -0.063853346 -0.11622722 -0.07234723 0.11187806 -0.10167941 -0.19116206 -0.026284434 0.028591286 -0.13765714 0.0053500887 0.104130805 -0.048551977 -0.06902526 -0.039871976 0.13622934 0.2696137 0.116802335 0.0053824754 -0.0525351 -0.06809662 0.0058210236 -0.30302766 0.07449513 -0.17494862 0.079123445 -0.12925486 -0.06542969 0.069855355 -0.014379566 -0.19587474 0.043791518
δ -0.015463383 -0.072850324 0.013436009 -0.23466481 -0.038654055 -0.059395622 0.023022601 0.20707387 -0.22605641 -0.14035624 -0.025399506 -0.10605055 0.24372266 -0.040533297 0.077281415 0.0031666413 0.00574287 -0.124101035 -0.09334252 -0.0680699 -0.12825076 -0.09309856 0.12253555 -0.08700913 -0.19065 -0.038689077 0.026095694 -0.118690275 0.0080138575 0.101281725 -0.033311192 -0.053779434 -0.031767093 0.17038861 0.25404578 0.10877088 0.0070406804 -0.02317332 -0.069113314 0.0291693 -0.3220448 0.08546961 -0.16694112 0.081723526 -0.12405581 -0.07359883 0.047104444 0.023562284 -0.20352381 0.062327396
α -0.009585524 -0.05914109 0.01857782 -0.237965 -0.032599434 -0.06018947 0.051290344 0.24870689 -0.2519774 -0.14246437 -0.0355922 -0.10378848 0.2479583 -0.06724714 0.06495481 0.0061380095 -0.00043631456 -0.10069209 -0.07568694 -0.09285947 -0.095333815 -0.10286875 0.18033472 -0.102058195 -0.21020687 -0.044213835 0.01871994 -0.090450905 0.013641535 0.1058082 -0.05940496 -0.08145014 -0.004041425 0.16396567 0.28577113 0.11119659 -0.004127808 -0.045662705 -0.07149116 0.019011179 -0.29292402 0.0659788 -0.19614877 0.09561163 -0.14556807 -0.06505699 0.059348747 -0.019543609 -0.19067186 0.059840348
π -0.006497861 -0.0022969272 0.02925753 -0.16518341 -0.09822384 -0.09110151 0.073759906 0.18338042 -0.2999587 -0.20948027 0.030372597 -0.101386845 0.18892404 -0.082229875 0.08859333 0.06023398 0.063114874 0.020895636 -0.116636395 -0.11352288 -0.08769153 -0.09555546 0.2173948 -0.074002355 -0.1378397 -0.03387776 -0.014398557 0.028238714 0.0012003076 0.08021264 -0.047603335 -0.10167709 0.032042883 0.089234695 0.21359834 0.022279955 0.040974967 -0.015409785 -0.07998292 0.010817159 -0.17997028 0.044528186 -0.1427031 0.07181759 -0.033405263 -0.04167861 0.028392963 -0.05143005 -0.14060932 0.06607925
ν -0.011172375 0.0043133055 0.029366849 -0.13809018 -0.062204197 -0.09209131 0.07642006 0.16209067 -0.23794761 -0.1616624 0.031513516 -0.11672656 0.16648817 -0.049549233 0.06903886 0.03259493 0.080184065 0.0274958 -0.11880423 -0.082484335 -0.09438437 -0.038165547 0.19354217 -0.057420343 -0.12164457 -0.029698305 -0.04275253 0.007866048 -0.011337173 0.045217443 -0.02291712 -0.10667538 -0.0030824123 0.059012353 0.18342 0.0175251 0.03629922 -0.014028471 -0.04071656 -0.0013553749 -0.19361229 0.03506081 -0.15396236 0.06041929 -0.024777178 -0.02085083 0.016840896 -0.0540259 -0.1228458 0.058978684
υ -0.026464598 -0.016612055 0.055233 -0.163918 -0.09697704 -0.124649815 0.09430075 0.21396577 -0.31412858 -0.18445255 0.024342934 -0.12847948 0.20446356 -0.0754234 0.100027405 0.071205124 0.06629644 0.08146208 -0.1347509 -0.13693608 -0.08200978 -0.06556748 0.23484369 -0.08561386 -0.12334286 -0.045501992 -0.057021115 0.034584012 -0.005610503 0.03541095 -0.061161924 -0.122186236 0.036233965 0.06733008 0.22261448 0.005384898 0.047232144 -0.039856117 -0.055268228 0.010373393 -0.17259966 0.04318689 -0.13866827 0.07104198 0.014928855 -0.019977579 0.02513767 -0.06622708 -0.15668735 0.04864984
ς 0.0038294683 -0.003934936 0.011545435 -0.123851135 -0.08607474 -0.07676856 0.067980185 0.15006812 -0.21671085 -0.13607775 0.013256277 -0.09041415 0.17997468 -0.03434952 0.05559833 0.065769486 0.082784005 0.038582925 -0.108678624 -0.10556853 -0.05609141 -0.052535515 0.180551 -0.040480036 -0.0947673 -0.026145935 -0.023016894 0.0105216615 0.00011025433 0.059012204 -0.01979144 -0.075415306 0.027650371 0.05371672 0.15106967 0.03769111 0.041591644 -0.03463447 -0.06360433 0.0028473658 -0.17306437 0.05902141 -0.11666509 0.044198066 0.009330226 -0.021273647 0.013096855 -0.06098735 -0.10636027 0.06562687
å -0.012528662 -0.00064648414 -0.002264458 -0.15423614 -0.04646195 -0.07497833 0.05094082 0.16126654 -0.23316088 -0.1326152 0.03265363 -0.092055164 0.13684776 -0.06125546 0.06677643 0.024078347 -0.013519762 -0.024640827 -0.03034738 -0.05653929 -0.09157876 -0.1248164 0.17351048 -0.05636978 -0.13647176 -0.036635704 -0.029341267 0.011866651 0.008242236 0.056774817 -0.03627314 -0.12355968 -0.0018391991 0.09417411 0.20163979 0.037494957 0.032445062 -0.031189477 -0.07116019 0.001812607 -0.17903754 0.061291907 -0.13568385 0.082185574 -0.07568115 -0.03534138 -0.010001528 -0.057785597 -0.12612644 0.050430197
ç -0.010419224 -0.04184968 0.015951095 -0.15734154 -0.030446729 -0.05781581 0.05958532 0.17362505 -0.24965177 -0.13803004 0.0031868375 -0.08932757 0.1656738 -0.046574876 0.09402059 0.0072822124 0.032553416 -0.036476344 -0.06456492 -0.07430305 -0.10505007 -0.10521117 0.14138223 -0.06839749 -0.121591315 -0.021553278 -0.02112691 0.011924914 0.025099076 0.0485384 -0.049746577 -0.08665769 -0.03549186 0.059992872 0.22611202 0.052581903 0.024408791 -0.038251065 -0.03881024 0.018868461 -0.20138697 0.03238522 -0.11026245 0.07787994 -0.055449 -0.033688 -0.014610885 -0.0052596247 -0.13491014 0.035816368
î -0.020168254 -0.008379952 0.014014662 -0.11458793 -0.06126443 -0.09223624 0.07952411 0.15974417 -0.19579893 -0.13566184 0.008328549 -0.0970343 0.14951232 -0.037726425 0.050498355 0.038327266 0.05329081 0.036690995 -0.129376 -0.0951648 -0.06614337 -0.016619613 0.17238335 -0.051858623 -0.09762958 -0.013852674 -0.014361801 0.031214751 -0.0030433699 0.04476266 -0.04147462 -0.08110688 -0.0037108024 0.041734975 0.13961041 0.02961555 0.049036548 -0.0075891484 -0.030847214 -0.0012905945 -0.14153527 0.050366305 -0.11503881 0.07542156 0.043004118 -0.016566863 0.046337605 -0.06775228 -0.1103147 0.07098949
